--afs jmp
_G.Key = math.huge
return (function(L_1_arg0, L_2_arg1, L_3_arg2)
	local L_4_ = pairs;
	local L_5_ = unpack or table.unpack;
	local L_6_ = tonumber;
	local L_7_ = table.concat;
	local L_8_ = L_1_arg0.byte;
	local L_9_ = L_1_arg0.char;
	local L_10_ = setmetatable;
	local L_11_ = select;
	local L_12_ = table.getn or function(L_30_arg0)
		return #L_30_arg0
	end;
	local L_13_ = table.insert;
	local L_14_ = L_1_arg0.sub;
	local L_15_ = getfenv or function()
		return _ENV
	end;
	local L_16_ = {}
	for L_31_forvar0 = 0, 255 do
		L_16_[L_31_forvar0] = L_9_(L_31_forvar0)
	end;
	local function L_17_func(L_32_arg0)
		local L_33_, L_34_, L_35_ = "", "", {}
		local L_36_ = 256;
		local L_37_ = 1;
		local function L_38_func()
			local L_39_ = L_6_(L_14_(L_32_arg0, L_37_, L_37_), 36)
			L_37_ = L_37_ + 1;
			local L_40_ = L_6_(L_14_(L_32_arg0, L_37_, L_37_ + L_39_ - 1), 36)
			L_37_ = L_37_ + L_39_;
			return L_40_
		end;
		L_33_ = L_9_(L_38_func())
		L_35_[1] = L_33_;
		while L_37_ < #L_32_arg0 do
			local L_41_ = L_38_func()
			if L_16_[L_41_] then
				L_34_ = L_16_[L_41_]
			else
				L_34_ = L_33_..L_14_(L_33_, 1, 1)
			end;
			L_16_[L_36_] = L_33_..L_14_(L_34_, 1, 1)
			L_35_[#L_35_ + 1], L_33_, L_36_ = L_34_, L_34_, L_36_ + 1
		end;
		return L_7_(L_35_)
	end;
	local L_18_ = 